{
  "labels": {
    "labels": [
      "top right blue",
      "bottom right green",
      "bottom left red",
      "top left yellow"
    ],
    "rows": 4
  },
  "mlp": {
    "layers": [
      {
        "activation": 1,
        "biases": [
          0.7193121568102504,
          5.172332620741018,
          0.8190957182862934,
          -4.167011691959599,
          -2.226727554551913,
          -1.6164928536774907
        ],
        "cols": 6,
        "rows": 2,
        "weights": [
          [
            -3.5605298811113975,
            -0.5877680094208817,
            -2.828787354081209,
            9.3225775757763,
            3.776891162162358,
            0.8955512125379483
          ],
          [
            3.233406033207915,
            -9.833624022051763,
            1.724444311434526,
            -1.3602797500027264,
            0.744424173467581,
            3.0774031365619607
          ]
        ]
      },
      {
        "activation": 1,
        "biases": [
          -1.3892689924609545,
          -2.7760392906806683,
          -0.8823706621520594,
          -0.2154112198173122
        ],
        "cols": 4,
        "rows": 6,
        "weights": [
          [
            -1.5647937897537938,
            -5.326403399629139,
            0.5155038300078804,
            2.813048017527623
          ],
          [
            -8.484060438151682,
            3.579376971472713,
            6.949644165220192,
            -5.147364200760344
          ],
          [
            -1.6731620320634397,
            -3.2985716607962603,
            0.8354464615683311,
            1.5400417109575208
          ],
          [
            4.674334146697068,
            6.188509582267094,
            -4.756648955620889,
            -7.059619472064104
          ],
          [
            2.033338490617105,
            -0.16684824315940605,
            -4.388548664667896,
            -1.1883085421213713
          ],
          [
            1.225803644859912,
            -1.8957236777028896,
            -2.923119732362965,
            1.7127671988036317
          ]
        ]
      }
    ]
  }
}
